22 10
1.00000000 -0.23974813 0.15974059 0.09216407 0.29656234 -0.34433887 0.08014092 0.59956594 0.08033944 -0.56035978 0.12502676
1.00000000 -0.05016700 -0.38521903 0.52908128 -0.21574253 0.05137355 -0.07215274 0.60839934 -0.22951200 -0.29378352 -0.07508799
1.00000000 0.29422537 -0.17681318 -0.07394713 0.12074984 0.45833660 -0.28191989 -0.09659768 0.55053294 -0.49418705 0.12621446
1.00000000 -0.07767767 -0.18732611 0.36188523 0.21854391 0.31068010 0.08398788 -0.18787279 0.20355266 0.73045998 -0.25743931
1.00000000 -0.21403686 -0.10535469 -0.82571625 -0.18774991 0.18212679 0.33350318 0.15566182 -0.21317557 0.06565259 -0.08747587
1.00000000 -0.17812605 0.64292539 -0.12275088 -0.28998167 0.19733241 -0.27794548 -0.30644471 -0.07522529 -0.47754539 0.10931753
1.00000000 0.18969574 0.16190688 0.21028213 -0.55671193 -0.39218564 -0.16123724 0.36878557 -0.21578348 -0.44727151 0.14570796
1.00000000 -0.11522881 0.01206984 0.19856307 0.29864592 0.03849224 0.20110262 -0.64701148 -0.04703162 0.57876788 0.24541385
1.00000000 -0.03105005 0.26715548 0.35579562 -0.02197700 0.00892622 -0.64969690 0.07312475 0.60792906 -0.04711606 -0.03549209
1.00000000 -0.47188708 -0.44058178 -0.59187587 -0.07912224 -0.23042234 0.03776667 0.31708109 -0.14389673 -0.12125241 -0.19016649
1.00000000 -0.01785856 0.75941920 0.11614865 -0.24387330 0.45451973 -0.11094286 0.34218345 -0.06699282 -0.08341354 0.05066539
1.00000000 0.35724022 0.24237252 0.21674374 -0.14202363 -0.06457977 0.57152491 0.09075249 0.01683667 -0.61974465 -0.15189546
1.00000000 -0.31851747 -0.73689898 0.45065829 -0.10318820 -0.18701508 -0.11797656 0.01392826 0.15068271 0.07589032 -0.25344444
1.00000000 0.16446623 0.30670683 0.32939499 -0.45829901 -0.38576018 0.22724638 0.58568668 -0.06846782 -0.08901903 -0.06519037
1.00000000 -0.31959514 -0.16691054 0.05754733 -0.38001560 -0.59813025 -0.34609867 0.11462271 0.10729808 -0.31784206 0.34504690
1.00000000 0.41115479 -0.07862093 0.31819528 -0.51648316 0.10191230 -0.16366987 -0.09666105 0.56135598 -0.24272561 -0.19029935
1.00000000 -0.08514381 0.01978507 0.15082164 -0.11237205 -0.21486097 -0.30046340 0.11890491 -0.20705011 0.66306976 0.56909693
1.00000000 -0.03390092 -0.38365336 -0.09792576 -0.49373253 0.58359241 -0.15330269 0.07318451 -0.17981914 -0.43399642 -0.09040994
1.00000000 -0.19950430 -0.14488738 0.07685804 0.11016723 -0.70478382 -0.36759222 -0.12463893 -0.51184375 -0.09918855 -0.04427394
1.00000000 -0.15448804 0.64272520 0.40633324 -0.29287905 -0.00704814 -0.00204242 -0.48298293 0.03389552 -0.25999668 -0.10039615
1.00000000 -0.34792916 0.06550545 -0.22528558 -0.62624799 -0.08644928 -0.48704809 0.38614538 0.08155337 -0.17497485 -0.02548486
1.00000000 -0.18472084 -0.12480417 -0.16977382 -0.30821402 0.69672122 0.01677137 0.34156107 -0.13687048 0.07411372 0.44709174
