20 11
1.00000000 -0.12758053 0.21133285 -0.04055704 -0.36393001 0.33261461 -0.04208078 -0.51263431 -0.03590522 -0.27810964 -0.01103892 0.59246814
1.00000000 0.04853931 -0.08913686 -0.13002629 -0.49225702 -0.47488737 -0.04961298 -0.02245524 0.49392029 -0.48050409 -0.16376404 0.01819213
1.00000000 0.08910218 0.57984298 -0.14557777 0.12220780 -0.10085118 0.19774659 -0.25518667 -0.27546315 -0.47252311 0.15102852 0.42819707
1.00000000 -0.20672398 -0.12798738 -0.19560718 0.32037417 0.50605232 0.50396407 -0.02105852 -0.40342626 -0.28443440 -0.03920179 0.21042337
1.00000000 -0.15954311 0.12381349 -0.19359380 0.56374862 0.07702118 0.09709006 -0.53098365 0.13345295 0.28072524 0.21878532 -0.40266537
1.00000000 -0.49772199 -0.17100185 0.01368838 -0.05545699 0.13065646 0.39613376 -0.43671517 0.33681057 -0.29820314 -0.38904326 -0.03652385
1.00000000 -0.32732005 -0.16680150 0.75900522 -0.05827805 0.13421858 -0.02395055 -0.22291774 0.21331917 0.35848004 -0.09717920 0.18389186
1.00000000 0.24484498 0.28496171 -0.52533273 0.09959924 0.19680944 0.20821675 0.00273155 -0.36962568 -0.49338831 0.01693093 -0.33243919
1.00000000 0.15718626 0.17267223 0.21571892 -0.60755213 0.41068709 0.12432312 0.25487437 -0.48070839 0.08545549 0.07149614 0.19299371
1.00000000 0.19474538 -0.60453589 -0.12736097 0.32967049 -0.37771380 -0.13166362 -0.31635415 0.29645695 0.11627337 -0.29411759 -0.15398958
1.00000000 -0.28726612 -0.08476320 -0.17458051 0.41091684 -0.38680044 0.03707420 -0.54627265 0.13775980 -0.21238082 -0.25941373 -0.36080553
1.00000000 -0.39160568 0.35165727 0.21617281 0.19803077 -0.13513989 0.03186873 -0.10560036 -0.23837806 0.09972906 -0.56175575 0.47356724
1.00000000 0.27807390 0.39660516 0.64778896 0.29326372 -0.40838341 0.00364794 0.09672965 -0.18437233 -0.13325106 0.10832132 -0.14182966
1.00000000 0.21121899 -0.28300556 0.62997989 -0.12431860 0.23253212 -0.13842305 -0.38968814 0.07823007 0.29956200 0.08265515 0.36767706
1.00000000 -0.65537122 -0.40479009 -0.02363196 -0.12263649 -0.08649744 0.19693844 0.13141466 0.45236022 -0.28971562 -0.19262253 -0.04278613
1.00000000 0.03449074 0.02602442 -0.26858312 0.28560915 -0.01978924 0.42484388 -0.02300657 -0.13290340 0.33372170 -0.60150558 0.41493127
1.00000000 0.32443485 0.22830982 -0.05801390 0.36413149 -0.40963930 -0.16270681 -0.06285664 -0.39469490 0.56010572 -0.09509186 0.17287432
1.00000000 -0.37788230 -0.50353176 0.16204628 0.22229132 -0.09266479 -0.34135705 0.35549650 0.28731414 -0.06774863 0.30770511 0.30769696
1.00000000 -0.43986168 0.33090979 0.19385992 0.02466231 -0.38145521 -0.30908142 0.54317270 0.12317099 0.08526281 -0.24707015 0.19816670
1.00000000 0.35875114 -0.22459130 -0.21514610 0.21095730 -0.25942735 0.08258673 0.25581336 -0.02365206 -0.26275404 -0.71697383 -0.08277299
