24 11
1.00000000 0.51916536 -0.02209812 0.19426599 -0.26686410 0.13851768 -0.07184145 -0.05740379 0.36100170 0.05725379 -0.37157207 0.56719813
1.00000000 -0.08152281 -0.39051541 -0.28976983 0.51082307 -0.07534270 0.39317282 0.30393922 -0.02566527 -0.29707534 -0.18147255 -0.34851083
1.00000000 -0.09923509 0.39947912 0.30100457 0.11954569 -0.12156411 -0.18066655 -0.78207656 0.04178298 -0.22001166 0.06605469 -0.10998981
1.00000000 -0.25214439 0.28162619 0.58097235 -0.17655633 0.46816604 -0.24274054 0.20178445 -0.06779296 -0.03950160 0.02624688 -0.40341585
1.00000000 0.00131593 -0.19488378 -0.45417442 0.27135382 -0.21860935 0.36367463 -0.22669721 -0.52506934 -0.25948782 0.32093185 0.06812771
1.00000000 0.03229101 -0.38575943 -0.15280227 -0.12069976 -0.01829342 -0.33997875 -0.09878632 -0.19709720 -0.14680677 0.25086396 0.75047904
1.00000000 0.05744717 0.05542650 -0.12539720 0.07587667 0.28120380 -0.13091600 0.32516603 0.63061066 0.23967209 0.55283920 0.09723566
1.00000000 -0.66433932 0.54373664 0.21605081 -0.12051395 0.08944618 -0.00642431 0.09530555 -0.33073225 0.25500426 -0.02776522 0.09744348
1.00000000 0.24646757 0.09275704 -0.20012651 0.31519124 -0.11616709 -0.04423588 0.23383079 0.82710498 -0.05941504 -0.15186318 0.10212774
1.00000000 0.49654984 0.42425429 0.06757883 -0.34005673 0.34889137 0.08937000 -0.10963755 -0.11730283 -0.00663197 -0.54560953 0.00384754
1.00000000 0.11202173 -0.01920721 -0.20960007 -0.40736144 0.17751237 0.72743293 -0.14161811 0.16366382 -0.20969231 -0.15266606 -0.32002819
1.00000000 0.55894827 0.43627173 0.16584611 -0.24331728 -0.39379535 -0.11288484 -0.13191557 0.25292733 0.36911057 -0.12658306 0.09527841
1.00000000 -0.70543606 -0.11529966 -0.15850524 0.10241818 -0.29695739 0.00911141 -0.30129311 -0.08856360 -0.16084223 -0.48365274 0.08230799
1.00000000 0.08205828 -0.11829740 -0.20138758 0.27159044 -0.27644308 -0.19753315 0.57724722 0.01394308 -0.15768709 -0.51917434 0.34885204
1.00000000 0.23073138 0.14498955 0.23558471 -0.54484211 0.18895799 0.48706119 -0.01390946 0.42633606 0.13838360 0.31442523 -0.02202526
1.00000000 0.21671936 -0.21773943 -0.35441393 0.28534927 0.00867385 -0.10216622 -0.33466802 0.10438855 -0.74599298 0.09280264 0.00762506
1.00000000 -0.54417479 0.09434838 0.34388081 0.34151709 0.09703231 0.15667201 0.14030719 0.04401416 0.00028432 0.50048120 0.39245126
1.00000000 0.24050962 0.16837272 -0.16997642 0.45636939 0.51620695 -0.01883805 0.21271498 -0.44049111 -0.27704290 -0.27670429 0.13121793
1.00000000 0.48567204 -0.14018855 0.25610651 0.32313482 0.18217279 -0.36383876 0.49791997 -0.10670054 0.02984746 0.37856421 0.07339333
1.00000000 -0.07110365 -0.24927629 0.00601247 -0.54580178 0.24788776 -0.06786067 -0.43480306 0.01894901 -0.32313115 -0.42270199 -0.31034333
1.00000000 0.00651931 0.08616477 -0.71059595 0.18993935 0.09914495 -0.36393136 0.39624007 0.24336083 0.08111701 0.05810815 -0.28817807
1.00000000 -0.48682667 0.16026178 -0.25299723 0.10350710 -0.24775584 -0.25950204 0.00646896 -0.06384348 0.58370921 0.07634444 0.42802759
1.00000000 0.08487613 -0.17005379 0.07195370 0.59754439 -0.11131298 -0.03197605 0.23424140 -0.29814295 -0.08892788 -0.65097897 -0.11308421
1.00000000 -0.01934963 0.46888473 -0.18338317 -0.06047119 0.19975220 0.03322429 0.27096101 -0.00303643 0.47611960 -0.49922293 0.39005032
